 1.24474970020998E-0002
 1.48734889090179E-0002
 1.93284171246262E-0002
 1.50425317163467E-0002
 1.60952349950207E-0002
 9.22167903917170E-0003
 4.07017337346360E-0003
 5.11190838316367E-0003
 1.61613014643933E-0002
 1.90716852486332E-0002
 1.39864742231453E-0002
 1.00309766648934E-0002
 1.40904031793525E-0002
 1.23834072820301E-0002
 1.09107403936406E-0002
 3.35278463539623E-0003
 1.12001710195102E-0002
 1.79119987045340E-0002
 6.21580087882023E-0003
 6.20100031080284E-0003
 2.07456437582891E-0002
 1.87671829422129E-0002
 8.64462728100079E-0003
 2.20606929172718E-0003
 8.04679665489516E-0003
 1.28427688572259E-0002
 9.54246091313848E-0003
 1.82849549285322E-0002
 1.30795309608800E-0002
 1.38570585307605E-0002
 1.85744738505456E-0003
 9.40791817821207E-0003
 6.18403490114616E-0003
 1.10226029897973E-0002
 6.57091206306148E-0003
 1.08830746293620E-0002
 1.75034699325067E-0002
 1.17439398178760E-0002
 9.94795710423091E-0003
 6.98080115815713E-0003
 9.75208146286377E-0003
 1.07109021841296E-0002
 8.51457947848644E-0003
 1.53255050115888E-0002
 1.53055000433540E-0002
 1.82560408517531E-0002
 8.17189045356770E-0003
 5.66341174410923E-0003
 1.12744618791254E-0002
 1.97899459148800E-0002
 1.36573479310158E-0002
 2.35439562648025E-0002
 2.18064969251088E-0002
 8.25013063690960E-0003
 8.27640500139637E-0003
 2.36537710376439E-0003
 2.11854727959704E-0003
 7.93328813246319E-0003
 2.13989040950224E-0003
 1.09240296453805E-0002
 8.33718548790330E-0003
 5.14512600147299E-0003
 9.72758161343279E-0003
 7.73939382536071E-0003
 3.98206638804766E-0003
 1.38671504896308E-0002
 1.52551030193422E-0002
 1.84854259013321E-0002
 2.17180739066407E-0002
 9.21791266593175E-0003
 4.11162559424127E-0003
 9.65492507401677E-0003
 1.16042446322382E-0002
 2.24014777915045E-0002
 7.72170793472071E-0003
 4.67504437109767E-0003
 1.03174423418011E-0002
 1.96375110804468E-0002
 7.85835092088405E-0003
 5.38627782920287E-0003
 1.10796565977012E-0002
 1.32582411133342E-0002
 9.93157975850067E-0003
 3.71908555094791E-0003
 2.19709730746729E-0002
 1.24475986733614E-0002
 9.01055408809270E-0003
 4.19011347393194E-0003
 4.30951587169659E-0003
 1.58458666331285E-0002
 1.30847658879674E-0002
 1.36634157229167E-0002
 1.87012440705985E-0002
 7.89401127271105E-0003
 1.14123434977387E-0002
 8.81657543267522E-0004
 8.00883178096967E-0003
 8.58546337090615E-0003
 1.26828736851508E-0002
 8.51613924348271E-0003
 1.87911545839370E-0002
 1.00360297521007E-0002
 3.01110028006235E-0003
 5.41434927288975E-0003
 9.14040171801389E-0003
 9.61077322683934E-0003
 7.30700056315214E-0003
 1.47260491674075E-0002
 2.13898169373294E-0002
 1.62706734075186E-0002
 7.37225963931820E-0003
 8.17366901868510E-0004
 1.08883690259489E-0002
 1.83525501984434E-0002
 2.04245167516888E-0002
 1.78203030279178E-0002
 1.43681134408951E-0002
 8.93496113208414E-0003
 3.22502455134099E-0003
 4.23376275268339E-0003
 1.06383091665521E-0002
 9.50066121086479E-0003
 8.99761487740136E-0003
 1.03992452750816E-0002
 8.44391610661432E-0003
 5.09698859551655E-0004
 1.37349820350430E-0003
 6.18349069603852E-0003
 9.91988000103561E-0003
 1.22659225428805E-0002
 2.10276820044157E-0002
 1.75484539181809E-0002
 1.82065540097085E-0002
 1.32636027043418E-0002
 3.17742740421423E-0003
 5.71872296041676E-0003
 1.61983634681917E-0002
 2.29796594056495E-0002
 6.19171264515472E-0003
 9.22262426823295E-0003
 1.68762941690943E-0002
 1.60020110492951E-0002
 1.04629715161337E-0002
 4.05341974888529E-0003
 1.57710621301135E-0002
 1.19790973466678E-0002
 7.50493865418633E-0003
 6.97692709231035E-0003
 2.07175202522762E-0002
 1.80056864806772E-0002
 5.46415150896706E-0003
 5.04437103616340E-0003
 8.88498100512436E-0003
 1.03400320318059E-0002
 1.58632053400538E-0002
 1.81332065002096E-0002
 1.49412973822933E-0002
 4.66177419733782E-0003
 2.20795524808892E-0003
 1.78055293606816E-0004
 9.89749082660296E-0003
 1.73810452130567E-0002
 1.13801790779888E-0002
 7.02082336933785E-0003
 1.45714679482438E-0002
 9.94009695891407E-0003
 1.30529544889981E-0002
 7.23118381051435E-0004
 1.25835509334422E-0002
 1.84625354429215E-0002
 1.14588889821192E-0002
 8.22804642334063E-0003
 1.92453891785931E-0002
 1.04538731320361E-0002
 1.11089612984898E-0002
 7.81978903275160E-0003
 1.26155058072754E-0002
 1.64194488396845E-0002
 1.50568148416426E-0002
 1.45766747812388E-0002
 2.12487992136801E-0002
 1.04879157451023E-0002
 8.88038538273861E-0003
 8.05324699018684E-0003
 2.82177414870688E-0003
 9.58364387827260E-0003
 6.23031619810632E-0003
 5.03773570814303E-0003
 4.74817768325408E-0003
 4.70393891917276E-0004
 4.72317627641661E-0005
 3.02748547427356E-0003
 1.03620804593447E-0002
 1.07649303333375E-0002
 1.86103522729013E-0002
 1.96199224000395E-0002
 1.76708978510760E-0002
 1.32730167313895E-0002
 2.10097112452345E-0003
 8.22246705151031E-0003
 1.95801280575836E-0002
 2.14003628072419E-0002
 1.49149236842305E-0002
 9.62139416654395E-0003
 1.13372422482598E-0002
 1.12793548404539E-0002
 2.75983918684375E-0003
 1.73382483569284E-0003
 8.66603085216866E-0003
 1.44310439939659E-0002
 9.21766509760857E-0003
 2.92410662770592E-0003
 1.73941859297599E-0002
 1.47953521350246E-0002
 1.07965812050850E-0002
 6.01050720727869E-0003
 5.94294625826564E-0003
 6.85922436873909E-0003
 1.60619368892299E-0002
 1.86567282762553E-0002
 1.90609260518215E-0002
 1.49090974184958E-0002
 8.77600618265717E-0003
 3.60697301188395E-0003
 1.02530254948618E-0002
 1.38898844382709E-0002
 6.78005034296092E-0003
 6.18261841739098E-0003
 1.52973088400330E-0002
 1.76134226140618E-0002
 1.27113833550254E-0002
 8.70302994997019E-0003
 1.04940576368477E-0002
 9.11644582856752E-0003
 7.74488594223044E-0003
 9.23789851496792E-0003
 2.09695754466281E-0002
 1.93203476073904E-0002
 2.40608628981320E-0003
 2.58821656592545E-0003
 1.11156167259878E-0002
 1.98253259967487E-0002
 2.28196356356136E-0002
 2.41648776912200E-0002
 1.37182959836366E-0002
 1.09370321480355E-0002
 1.60442785690762E-0003
 1.09568555797495E-0002
 6.11791577127718E-0003
 1.93875171558133E-0003
 1.73738868279294E-0003
 4.39559955547253E-0003
 1.91089755259100E-0003
 1.11237058070657E-0002
 8.63920585932476E-0003
 4.08369631851713E-0003
 4.58771672574017E-0002
-4.66875772294202E-0002
 3.19191648291053E-0002
 4.80960857453283E-0002
 3.50917302611720E-0002
 8.74391234224277E-0002
 1.50935478466607E-0003
 3.66095406411304E-0003
-4.48747374744016E-0002
 3.18440984296444E-0002
 1.02984356527259E-0001
 3.17377593892161E-0002
-7.71018758526907E-0002
-5.29872114130399E-0002
 2.47692202662790E-0002
 1.10912916219092E-0002
-1.18566077111609E-0001
-1.11995353273869E-0001
 5.23009394043470E-0002
 4.31757853700105E-0002
-3.24887928504154E-0002
-5.36182836262356E-0002
 2.15820912643494E-0002
 6.63949403744368E-0003
 1.09044592241275E-0001
-1.30374052963589E-0001
-2.46294943152634E-0002
 1.00557637358207E-0002
 3.40122797635445E-0002
-2.57652673365083E-0004
 2.45147209693357E-0002
 1.04457312629869E-0003
-7.41228158827880E-0002
-4.53527985438313E-0002
 1.02035123867950E-0001
 6.69793703563073E-0002
-2.70877657443407E-0002
-9.78241838171812E-0003
 3.20058844686741E-0002
 4.48648375197536E-0003
 6.74976767412545E-0002
 6.07501245801245E-0002
 5.39192445834829E-0002
-2.58114540060603E-0002
 1.10830802879747E-0003
 7.77120918681931E-0002
 2.31823475377553E-0002
 3.12871170973139E-0003
 4.54617625121045E-0002
 1.34871529876790E-0002
 4.00811563288244E-0002
 4.75596097867310E-0002
 9.10265800296202E-0002
 7.96752709970860E-0002
 2.35140545463253E-0002
 4.91107844360528E-0003
 6.71274375086739E-0003
 7.21186402599017E-0003
 5.30775034737729E-0003
 9.32960284434614E-0003
 7.16513176605815E-0003
 6.61515986568162E-0004
 6.63507711979605E-0003
 8.22733599022740E-0003
-1.07823466415425E-0001
 3.73428927634905E-0002
 1.28590558557420E-0002
-1.73166700122351E-0002
-7.44382256506242E-0002
-9.51567476597575E-0002
 1.35488805539019E-0003
 7.06910644919390E-0003
 3.33549928963635E-0002
 1.66754593980158E-0002
-5.31259390587024E-0002
 2.44997855706117E-0002
-1.59370987768455E-0002
 2.70792119369219E-0002
 5.74766805066247E-0002
 2.86683801749987E-0003
-6.29144395937828E-0002
-9.22821482072322E-0002
-1.49609446350780E-0002
 2.35447125020585E-0002
 1.78347550037294E-0003
 3.66464388283703E-0002
 5.63083337519856E-0002
 6.67797822735139E-0003
-5.16600640499973E-0002
-6.47601838550145E-0002
 8.43184145140867E-0002
 5.16419839955233E-0002
-7.26028121224545E-0002
-1.33870198611277E-0002
 5.41538133112454E-0002
 1.32352709665540E-0003
-5.29198612182427E-0002
-1.93485338035941E-0002
 2.97454363570466E-0002
-1.52943400380536E-0002
-7.71220549787586E-0002
-2.49236985487187E-0002
 1.88384704134990E-0002
 1.04343806749227E-0002
 4.16753615989478E-0002
 4.47010170241242E-0002
 1.94532613240597E-0002
-3.01613767898630E-0002
-4.09692471450853E-0002
 7.37844069679028E-0003
 5.87466572510493E-0002
 9.83558672092499E-0003
 9.30899573481838E-0002
 9.67632007660768E-0002
 1.19870426339475E-0002
-1.97920319596108E-0002
 6.23978470837301E-0002
 1.07915092926646E-0001
-2.66601562541382E-0002
 5.67387302374556E-0003
 9.13413415736386E-0003
 5.88775432951394E-0003
 8.71778268555090E-0003
 6.75266278970632E-0004
 9.58413131053248E-0003
 4.64838912208165E-0003
 3.02563643794684E-0003
 9.26678093526334E-0003
-2.04747425294443E-0002
-1.67201424961547E-0002
-2.80444036418430E-0002
-8.87745131682038E-0003
-8.15327559671459E-0002
 4.77871255476430E-0002
 4.35769562138688E-0003
 7.07606988007115E-0003
-1.39294038457223E-0002
-3.16577359495795E-0002
 1.44694105597587E-0003
 8.44711928629067E-0002
-9.22588811113201E-0002
-4.32204917828471E-0002
 5.42614175217864E-0002
 2.41848692465396E-0003
 2.41932880034312E-0002
 3.49102586905587E-0002
 1.31311707515579E-0001
 1.15514720015312E-0001
 4.52111934954869E-0005
-4.74576645939919E-0002
 4.69572938249030E-0002
 1.02681778789844E-0002
-1.44928283785788E-0002
-5.49057779901574E-0003
-5.08948280373716E-0002
-6.89671012731878E-0002
-7.93805604947693E-0002
 1.07206912838251E-0001
 4.77101182357842E-0002
 2.27704041459731E-0003
-1.59066685210973E-0002
-3.47821326407711E-0002
 3.20978614648766E-0002
 6.59308520947661E-0002
-2.53679632783133E-0002
 1.48682090891015E-0002
 6.18790186335332E-0002
 3.78278467092485E-0003
-2.68221856412936E-0002
-2.55433062482950E-0002
 4.49683934765517E-0002
 6.64898981172968E-0003
-5.38227445604207E-0002
-9.95487795485417E-0003
 4.51879229964334E-0002
 5.63425194011558E-0003
 4.85104203755782E-0002
 3.51079523423437E-0002
-2.68354725179449E-0002
-1.13930804171503E-0002
 4.91149773420148E-0002
 9.65518072591749E-0002
 1.92602918597800E-0002
 4.29826104239339E-0003
 2.44103585568567E-0003
 9.97045904063132E-0005
 1.81186521488641E-0003
 1.11779284276281E-0002
 1.06246882024124E-0002
 3.89725195892865E-0003
 4.02495394764202E-0003
 1.85960832606469E-0003
 6.44218425543386E-0002
 4.80051575045195E-0002
 4.70681769273824E-0002
 2.51272117566543E-0002
-6.32338313783265E-0003
 3.15613500202403E-0002
 7.34925114685581E-0003
 7.72075773101477E-0003
 5.10928356124509E-0002
 4.74146084673066E-0002
-1.86816650472394E-0002
 1.28958999307400E-0002
 3.49974014973142E-0003
-1.39971969861676E-0002
-1.57486770515902E-0002
 9.06173332876392E-0003
-3.08783297856507E-0002
-4.59818699563925E-0002
 4.88600871284461E-0002
 6.83622590473760E-0002
 3.12973669645089E-0002
-8.03806138047491E-0003
-1.17794129814257E-0002
 8.02336108944424E-0004
-6.63492943079973E-0002
-8.58798559268052E-0002
-1.77816132189967E-0003
 6.75176800430943E-0005
 5.63233378915839E-0004
 4.27359164779659E-0002
-6.59948103797348E-0003
 4.41707419022208E-0003
-1.22266637793473E-0001
-2.12978088089130E-0001
-6.68471312259271E-0002
 1.92382342443977E-0002
 7.30305360282273E-0002
 5.92384956214005E-0002
-2.56172580850489E-0002
 8.21243175776942E-0003
-3.74068490202148E-0002
-4.64867183538900E-0002
 4.02176030493138E-0002
 8.82285274045671E-0002
-1.08377866607157E-0002
-6.17619893321262E-0002
-1.30536882923593E-0002
 9.47152798619300E-0003
-4.61286889604366E-0002
 1.74349638200795E-0002
 4.61351299305193E-0002
 2.28444626799558E-0002
-3.43530917247108E-0002
-8.97345777785858E-0002
-1.37929248468538E-0002
 8.49698903039098E-0003
 7.74271213292366E-0003
 8.04905635776265E-0003
 1.05948086064132E-0002
 9.46743383983062E-0003
 1.58735242766461E-0003
 2.14050200066751E-0003
 8.85702841758018E-0003
 7.12066883576945E-0004
-3.80181394038118E-0001
-3.71731245213596E-0001
-3.80761104093381E-0001
-3.84314733156771E-0001
-2.64825527895482E-0001
-1.92497827191119E-0001
-1.93411784788850E-0001
-3.01243820506443E-0001
-3.71976290892235E-0001
-3.73667434433628E-0001
-3.75303265253024E-0001
-3.89530697787450E-0001
-2.68623568852036E-0001
-1.97998848312182E-0001
-1.90251522451035E-0001
-3.07828483978483E-0001
 3.78413185391310E-0001
 3.69500837049600E-0001
 3.81752709397915E-0001
 3.86186063912646E-0001
 2.64975933820097E-0001
 1.94968665527313E-0001
 1.92887526867480E-0001
 3.02360047321145E-0001
 3.77289950908562E-0001
 3.74656787828371E-0001
 3.79660657245950E-0001
 3.83044679539125E-0001
 2.67308815469278E-0001
 1.99148940984969E-0001
 1.89112673544287E-0001
 3.01379040191023E-0001
 4.03647321427343E-0001
 4.46501294865811E-0001
 3.75386932679248E-0001
 3.88937851354513E-0001
-2.59855500379490E+0000
-4.59896919060157E-0001
-4.36805667950921E-0001
 2.64877472323519E-0002
-8.51082594384707E-0002
-2.23341231539280E-0001
-2.65228002505864E-0001
 2.36631017357158E-0004
 2.00183599003503E+0000
-2.49253266584128E+0000
-2.41544658272005E-0001
 2.89073930150607E-0001
-5.00833797764244E-0001
-2.64924496478670E-0001
-1.49885721447845E-0001
-2.38301963681806E-0001
 2.01060940973912E+0000
 5.29261546706948E-0001
-2.51584246094353E+0000
 2.02839929541483E-0002
-3.97448560888733E-0001
-3.81564349260771E-0001
-5.12028630941131E-0001
-4.16673057159187E-0001
-1.92691945627075E-0001
 3.62703694264837E-0001
 2.82702459212032E-0001
 2.68412129117496E+0000
